7.3762238875639055 9.151380876929318 22.833015412506196 -17.978677783872584 29.682239257381916 -22.69641810522824 -14.091231097147077 12.517724342035805 -20.107836211669035 15.15931636132172 -28.039529237743803 -3.7648056023665553 23.097396112686386 -26.097508735339932
4.606341182877383 5.67531158700902 14.996484486393086 -12.073986431163961 19.5400484632334 -15.115596100909672 -9.517429040421986 8.316672394518752 -13.591779893872665 10.012003881526738 -18.03763360448539 -2.702727155269574 15.426971906808932 -17.008846921933692
5.243689307546466 6.6127141571976065 16.89699622055502 -13.143322036665952 21.63174014738658 -16.632444417236336 -9.942090038823585 9.4907229061934 -15.740370763368002 11.445062911858045 -20.325092081905073 -3.015896782588749 17.591353315852768 -18.682801948822227
5.390430371088111 6.95896397160267 17.821929641029346 -13.95366763831239 22.424812225245297 -17.212917441091452 -10.235161991459357 9.452471068317795 -15.221274092478353 11.190329182614892 -21.174942989071457 -2.6265263406788586 18.10154865460537 -20.03853573442252
